var var0 = 0;
var var1 = 1;
var var2 = 2;
var var3 = 3;
var var4 = 4;
var var5 = 5;
var var6 = 6;
var var7 = 7;
var var8 = 8;
var var9 = 9;
var var10 = 10;
var var11 = 11;
var var12 = 12;
var var13 = 13;
var var14 = 14;
var var15 = 15;
var var16 = 16;
var var17 = 17;
var var18 = 18;
var var19 = 19;
var var20 = 20;
var var21 = 21;
var var22 = 22;
var var23 = 23;
var var24 = 24;
var var25 = 25;
var var26 = 26;
var var27 = 27;
var var28 = 28;
var var29 = 29;
var var30 = 30;
var var31 = 31;
var var32 = 32;
var var33 = 33;
var var34 = 34;
var var35 = 35;
var var36 = 36;
var var37 = 37;
var var38 = 38;
var var39 = 39;
var var40 = 40;
var var41 = 41;
var var42 = 42;
var var43 = 43;
var var44 = 44;
var var45 = 45;
var var46 = 46;
var var47 = 47;
var var48 = 48;
var var49 = 49;
var var50 = 50;
var var51 = 51;
var var52 = 52;
var var53 = 53;
var var54 = 54;
var var55 = 55;
var var56 = 56;
var var57 = 57;
var var58 = 58;
var var59 = 59;
var var60 = 60;
var var61 = 61;
var var62 = 62;
var var63 = 63;
var var64 = 64;
var var65 = 65;
var var66 = 66;
var var67 = 67;
var var68 = 68;
var var69 = 69;
var var70 = 70;
var var71 = 71;
var var72 = 72;
var var73 = 73;
var var74 = 74;
var var75 = 75;
var var76 = 76;
var var77 = 77;
var var78 = 78;
var var79 = 79;
var var80 = 80;
var var81 = 81;
var var82 = 82;
var var83 = 83;
var var84 = 84;
var var85 = 85;
var var86 = 86;
var var87 = 87;
var var88 = 88;
var var89 = 89;
var var90 = 90;
var var91 = 91;
var var92 = 92;
var var93 = 93;
var var94 = 94;
var var95 = 95;
var var96 = 96;
var var97 = 97;
var var98 = 98;
var var99 = 99;
var var100 = 100;
var var101 = 101;
var var102 = 102;
var var103 = 103;
var var104 = 104;
var var105 = 105;
var var106 = 106;
var var107 = 107;
var var108 = 108;
var var109 = 109;
var var110 = 110;
var var111 = 111;
var var112 = 112;
var var113 = 113;
var var114 = 114;
var var115 = 115;
var var116 = 116;
var var117 = 117;
var var118 = 118;
var var119 = 119;
var var120 = 120;
var var121 = 121;
var var122 = 122;
var var123 = 123;
var var124 = 124;
var var125 = 125;
var var126 = 126;
var var127 = 127;
var var128 = 128;
var var129 = 129;
var var130 = 130;
var var131 = 131;
var var132 = 132;
print var132;